<?xml version="1.0"?>
<opencv_storage>
<stage0>
  <maxWeakCount>7</maxWeakCount>
  <stageThreshold>8.0087417364120483e-01</stageThreshold>
  <weakClassifiers>
    <_>
      <internalNodes>
        0 -1 71481 3.9784032851457596e-03</internalNodes>
      <leafValues>
        -6.1194032430648804e-01 9.2947101593017578e-01</leafValues></_>
    <_>
      <internalNodes>
        0 -1 424 2.3417515680193901e-02</internalNodes>
      <leafValues>
        -9.0984433889389038e-01 5.9793782234191895e-01</leafValues></_>
    <_>
      <internalNodes>
        0 -1 86239 -6.4878412522375584e-03</internalNodes>
      <leafValues>
        9.9399322271347046e-01 -5.2986651659011841e-01</leafValues></_>
    <_>
      <internalNodes>
        0 -1 92213 3.0983490869402885e-03</internalNodes>
      <leafValues>
        -6.1778831481933594e-01 9.2810201644897461e-01</leafValues></_>
    <_>
      <internalNodes>
        0 -1 106058 6.0377977788448334e-03</internalNodes>
      <leafValues>
        -9.8412376642227173e-01 5.5965381860733032e-01</leafValues></_>
    <_>
      <internalNodes>
        0 -1 9856 -2.5707702661748044e-05</internalNodes>
      <leafValues>
        -1. 4.4390618801116943e-01</leafValues></_>
    <_>
      <internalNodes>
        0 -1 108502 -6.4282962121069431e-03</internalNodes>
      <leafValues>
        9.6139699220657349e-01 -5.6488823890686035e-01</leafValues></_></weakClassifiers></stage0>
</opencv_storage>
